{"graph_0": {"_type": "graph-file", "path": "media/graph/graph_0_summary_2dc09dc5.graph.json", "sha256": "2dc09dc5340de0be48e1899a868ef1210ddf6049870b6b44d0eb4bdebdd669e7", "size": 1438}, "_runtime": 189.4334807395935, "Train_loss": 582.1882019042969, "_step": 685, "_timestamp": 1593030972.2174234, "distance": {"_type": "plotly-file", "path": "media/plotly/distance_683_14005202.plotly.json", "sha256": "1400520215d24029ccb25493a5c7ab9475e2ae83520ad05a0d3b6a5910ca2c0c", "size": 116629}, "Test_loss": 6691.64501953125, "gradients/encode_conv1.bias": {"_type": "histogram", "values": [1.0, 0.0, 0.0, 0.0, 0.0, 0.0, 0.0, 0.0, 0.0, 0.0, 0.0, 0.0, 0.0, 0.0, 0.0, 0.0, 0.0, 0.0, 0.0, 0.0, 0.0, 0.0, 0.0, 0.0, 0.0, 0.0, 0.0, 0.0, 0.0, 0.0, 0.0, 1.0, 0.0, 0.0, 0.0, 0.0, 0.0, 1.0, 0.0, 0.0, 0.0, 0.0, 0.0, 0.0, 0.0, 0.0, 0.0, 0.0, 0.0, 0.0, 0.0, 0.0, 0.0, 0.0, 0.0, 0.0, 0.0, 0.0, 0.0, 0.0, 0.0, 0.0, 0.0, 1.0], "bins": [-7.495060920715332, -7.254318714141846, -7.013576507568359, -6.772834300994873, -6.532092094421387, -6.291349411010742, -6.050607204437256, -5.8098649978637695, -5.569122791290283, -5.328380584716797, -5.0876383781433105, -4.846896171569824, -4.60615348815918, -4.365411758422852, -4.124669075012207, -3.8839268684387207, -3.6431846618652344, -3.402442455291748, -3.1617002487182617, -2.9209580421447754, -2.680215835571289, -2.4394731521606445, -2.198730945587158, -1.9579887390136719, -1.7172465324401855, -1.4765043258666992, -1.235762119293213, -0.9950199127197266, -0.754277229309082, -0.5135350227355957, -0.2727928161621094, -0.03205060958862305, 0.20869159698486328, 0.4494338035583496, 0.6901760101318359, 0.9309186935424805, 1.1716604232788086, 1.4124031066894531, 1.6531448364257812, 1.8938875198364258, 2.134629249572754, 2.3753719329833984, 2.616114616394043, 2.856856346130371, 3.0975990295410156, 3.3383407592773438, 3.5790834426879883, 3.8198251724243164, 4.060567855834961, 4.3013105392456055, 4.542052268981934, 4.782794952392578, 5.023536682128906, 5.264279365539551, 5.505021095275879, 5.745763778686523, 5.986506462097168, 6.227248191833496, 6.467990875244141, 6.708732604980469, 6.949475288391113, 7.190217018127441, 7.430959701538086, 7.671701431274414, 7.912444114685059]}, "gradients/encode_conv2.bias": {"_type": "histogram", "values": [1.0, 0.0, 0.0, 0.0, 0.0, 0.0, 0.0, 0.0, 0.0, 0.0, 0.0, 0.0, 0.0, 0.0, 0.0, 0.0, 0.0, 0.0, 0.0, 0.0, 1.0, 0.0, 0.0, 0.0, 0.0, 1.0, 0.0, 0.0, 0.0, 0.0, 0.0, 0.0, 0.0, 0.0, 0.0, 0.0, 0.0, 0.0, 0.0, 0.0, 0.0, 0.0, 0.0, 0.0, 0.0, 0.0, 0.0, 0.0, 0.0, 0.0, 0.0, 0.0, 0.0, 0.0, 0.0, 0.0, 0.0, 0.0, 0.0, 0.0, 0.0, 0.0, 0.0, 1.0], "bins": [-16.58544921875, -15.864677429199219, -15.143904685974121, -14.42313289642334, -13.702360153198242, -12.981588363647461, -12.26081657409668, -11.540044784545898, -10.8192720413208, -10.098499298095703, -9.377727508544922, -8.65695571899414, -7.936183929443359, -7.215411186218262, -6.4946393966674805, -5.773866653442383, -5.053094863891602, -4.33232307434082, -3.6115503311157227, -2.8907785415649414, -2.1700057983398438, -1.4492340087890625, -0.7284622192382812, -0.0076904296875, 0.7130813598632812, 1.4338550567626953, 2.1546268463134766, 2.875398635864258, 3.596170425415039, 4.31694221496582, 5.037715911865234, 5.758487701416016, 6.479259490966797, 7.200031280517578, 7.920803070068359, 8.641576766967773, 9.362348556518555, 10.083120346069336, 10.803892135620117, 11.524663925170898, 12.245437622070312, 12.966209411621094, 13.686981201171875, 14.407752990722656, 15.128524780273438, 15.849296569824219, 16.570068359375, 17.29084014892578, 18.011611938476562, 18.73238754272461, 19.45315933227539, 20.173931121826172, 20.894702911376953, 21.615474700927734, 22.336246490478516, 23.057018280029297, 23.777790069580078, 24.49856185913086, 25.21933364868164, 25.940109252929688, 26.66088104248047, 27.38165283203125, 28.10242462158203, 28.823196411132812, 29.543968200683594]}, "gradients/encode_conv3.bias": {"_type": "histogram", "values": [2.0, 0.0, 0.0, 0.0, 0.0, 0.0, 1.0, 0.0, 0.0, 0.0, 0.0, 0.0, 0.0, 0.0, 0.0, 0.0, 0.0, 0.0, 0.0, 0.0, 0.0, 0.0, 0.0, 0.0, 0.0, 0.0, 0.0, 0.0, 1.0, 0.0, 1.0, 0.0, 1.0, 0.0, 0.0, 0.0, 0.0, 1.0, 0.0, 0.0, 0.0, 0.0, 0.0, 0.0, 0.0, 0.0, 0.0, 0.0, 0.0, 0.0, 0.0, 0.0, 0.0, 0.0, 0.0, 0.0, 0.0, 0.0, 0.0, 0.0, 0.0, 0.0, 0.0, 1.0], "bins": [-21.47092056274414, -20.575883865356445, -19.680849075317383, -18.785812377929688, -17.890775680541992, -16.995738983154297, -16.100704193115234, -15.205667495727539, -14.31063175201416, -13.415596008300781, -12.520559310913086, -11.625523567199707, -10.730487823486328, -9.835451126098633, -8.940415382385254, -8.045378684997559, -7.15034294128418, -6.255307197570801, -5.360271453857422, -4.465234756469727, -3.5701980590820312, -2.6751632690429688, -1.7801265716552734, -0.8850898742675781, 0.009944915771484375, 0.9049816131591797, 1.800018310546875, 2.6950550079345703, 3.590089797973633, 4.485126495361328, 5.380163192749023, 6.275197982788086, 7.170234680175781, 8.065271377563477, 8.960306167602539, 9.855342864990234, 10.750377655029297, 11.645416259765625, 12.540451049804688, 13.43548583984375, 14.330524444580078, 15.22555923461914, 16.120594024658203, 17.01563262939453, 17.910667419433594, 18.805702209472656, 19.700740814208984, 20.595775604248047, 21.49081039428711, 22.385848999023438, 23.2808837890625, 24.175922393798828, 25.07095718383789, 25.965991973876953, 26.86103057861328, 27.756065368652344, 28.651100158691406, 29.546138763427734, 30.441173553466797, 31.33620834350586, 32.23124694824219, 33.12628173828125, 34.02131652832031, 34.91635513305664, 35.8113899230957]}, "gradients/encode_conv3.weight": {"_type": "histogram", "values": [1.0, 0.0, 1.0, 0.0, 1.0, 0.0, 0.0, 0.0, 0.0, 1.0, 1.0, 0.0, 2.0, 0.0, 0.0, 0.0, 2.0, 2.0, 2.0, 4.0, 3.0, 1.0, 2.0, 1.0, 3.0, 5.0, 2.0, 7.0, 7.0, 13.0, 7.0, 2.0, 3.0, 1.0, 1.0, 3.0, 4.0, 1.0, 3.0, 1.0, 2.0, 0.0, 0.0, 0.0, 0.0, 0.0, 0.0, 0.0, 1.0, 1.0, 1.0, 0.0, 1.0, 0.0, 0.0, 0.0, 0.0, 0.0, 0.0, 1.0, 0.0, 0.0, 1.0, 1.0], "bins": [-1370.6231689453125, -1323.6280517578125, -1276.6329345703125, -1229.6378173828125, -1182.6427001953125, -1135.6475830078125, -1088.6524658203125, -1041.6573486328125, -994.6622314453125, -947.6671142578125, -900.6719970703125, -853.6768798828125, -806.6817626953125, -759.6866455078125, -712.6915283203125, -665.6964111328125, -618.7012939453125, -571.7061767578125, -524.7110595703125, -477.7159423828125, -430.7208251953125, -383.7257080078125, -336.7305908203125, -289.7354736328125, -242.7403564453125, -195.7452392578125, -148.7501220703125, -101.7550048828125, -54.7598876953125, -7.7647705078125, 39.2303466796875, 86.2254638671875, 133.2205810546875, 180.2156982421875, 227.2108154296875, 274.2059326171875, 321.2010498046875, 368.1961669921875, 415.1912841796875, 462.1864013671875, 509.1815185546875, 556.1766357421875, 603.1717529296875, 650.1668701171875, 697.1619873046875, 744.1571044921875, 791.1522216796875, 838.1473388671875, 885.1424560546875, 932.1375732421875, 979.1326904296875, 1026.1278076171875, 1073.1229248046875, 1120.1180419921875, 1167.1131591796875, 1214.1082763671875, 1261.1033935546875, 1308.0985107421875, 1355.0936279296875, 1402.0887451171875, 1449.0838623046875, 1496.0789794921875, 1543.0740966796875, 1590.0692138671875, 1637.0643310546875]}, "gradients/fc3.bias": {"_type": "histogram", "values": [1.0, 0.0, 0.0, 0.0, 0.0, 0.0, 0.0, 0.0, 0.0, 0.0, 0.0, 0.0, 0.0, 0.0, 0.0, 0.0, 0.0, 0.0, 0.0, 0.0, 0.0, 0.0, 0.0, 0.0, 0.0, 0.0, 0.0, 0.0, 0.0, 0.0, 0.0, 0.0, 0.0, 0.0, 0.0, 0.0, 0.0, 0.0, 0.0, 20.0, 1.0, 0.0, 1.0, 0.0, 0.0, 0.0, 0.0, 0.0, 0.0, 0.0, 0.0, 0.0, 1.0, 0.0, 0.0, 0.0, 0.0, 0.0, 0.0, 0.0, 0.0, 0.0, 0.0, 1.0], "bins": [-145.6648406982422, -142.0150604248047, -138.36526489257812, -134.71548461914062, -131.06570434570312, -127.41590881347656, -123.76612854003906, -120.11634063720703, -116.466552734375, -112.8167724609375, -109.16698455810547, -105.51719665527344, -101.86741638183594, -98.2176284790039, -94.56784057617188, -90.91806030273438, -87.26827239990234, -83.61848449707031, -79.96870422363281, -76.31891632080078, -72.66912841796875, -69.01934814453125, -65.36956024169922, -61.71977233886719, -58.06999206542969, -54.420204162597656, -50.770416259765625, -47.120628356933594, -43.470848083496094, -39.82106018066406, -36.17127227783203, -32.52149200439453, -28.8717041015625, -25.22191619873047, -21.57213592529297, -17.922348022460938, -14.272567749023438, -10.622772216796875, -6.972991943359375, -3.323211669921875, 0.3265838623046875, 3.9763641357421875, 7.6261444091796875, 11.27593994140625, 14.92572021484375, 18.57550048828125, 22.225296020507812, 25.875076293945312, 29.524856567382812, 33.174652099609375, 36.824432373046875, 40.47422790527344, 44.12400817871094, 47.77378845214844, 51.423583984375, 55.0733642578125, 58.72314453125, 62.37294006347656, 66.02272033691406, 69.67250061035156, 73.32229614257812, 76.97207641601562, 80.62185668945312, 84.27165222167969, 87.92143249511719]}, "gradients/encode_conv4.bias": {"_type": "histogram", "values": [1.0, 0.0, 0.0, 0.0, 0.0, 0.0, 0.0, 1.0, 0.0, 0.0, 1.0, 0.0, 0.0, 0.0, 0.0, 0.0, 1.0, 0.0, 0.0, 0.0, 0.0, 0.0, 0.0, 0.0, 0.0, 0.0, 0.0, 0.0, 0.0, 0.0, 0.0, 0.0, 0.0, 0.0, 0.0, 0.0, 0.0, 0.0, 2.0, 0.0, 0.0, 0.0, 0.0, 0.0, 0.0, 1.0, 0.0, 0.0, 0.0, 0.0, 0.0, 0.0, 0.0, 0.0, 0.0, 0.0, 0.0, 0.0, 0.0, 0.0, 0.0, 0.0, 0.0, 1.0], "bins": [-43.71017837524414, -42.32775115966797, -40.94532012939453, -39.56289291381836, -38.18046569824219, -36.79803466796875, -35.41560745239258, -34.033180236816406, -32.65074920654297, -31.268321990966797, -29.885894775390625, -28.50346565246582, -27.121036529541016, -25.738609313964844, -24.35618019104004, -22.973752975463867, -21.591323852539062, -20.208894729614258, -18.826467514038086, -17.44403839111328, -16.06161117553711, -14.679182052612305, -13.2967529296875, -11.914325714111328, -10.53189468383789, -9.149467468261719, -7.767040252685547, -6.384613037109375, -5.0021820068359375, -3.6197547912597656, -2.2373275756835938, -0.8548965454101562, 0.5275306701660156, 1.9099578857421875, 3.292388916015625, 4.674816131591797, 6.057243347167969, 7.439674377441406, 8.822101593017578, 10.20452880859375, 11.586956024169922, 12.96938705444336, 14.351814270019531, 15.734241485595703, 17.11667251586914, 18.499099731445312, 19.881526947021484, 21.263957977294922, 22.64638900756836, 24.028812408447266, 25.411243438720703, 26.79366683959961, 28.176097869873047, 29.558528900146484, 30.94095230102539, 32.32338333129883, 33.705814361572266, 35.08823776245117, 36.47066879272461, 37.85309982299805, 39.23552322387695, 40.61795425415039, 42.00038528442383, 43.382808685302734, 44.76523971557617]}, "gradients/fc1.bias": {"_type": "histogram", "values": [1.0, 0.0, 0.0, 1.0, 0.0, 0.0, 0.0, 0.0, 0.0, 0.0, 0.0, 0.0, 0.0, 0.0, 0.0, 0.0, 0.0, 0.0, 0.0, 0.0, 0.0, 0.0, 1.0, 0.0, 2.0, 4.0, 2.0, 3.0, 4.0, 1.0, 10.0, 7.0, 4.0, 5.0, 10.0, 7.0, 66.0, 14.0, 8.0, 5.0, 9.0, 5.0, 6.0, 3.0, 4.0, 2.0, 4.0, 1.0, 2.0, 2.0, 1.0, 1.0, 0.0, 1.0, 0.0, 1.0, 0.0, 0.0, 0.0, 0.0, 1.0, 0.0, 0.0, 2.0], "bins": [-56.308387756347656, -54.779998779296875, -53.251609802246094, -51.72322463989258, -50.1948356628418, -48.666446685791016, -47.1380615234375, -45.60967254638672, -44.08128356933594, -42.552894592285156, -41.024505615234375, -39.49612045288086, -37.96773147583008, -36.4393424987793, -34.91095733642578, -33.382568359375, -31.85417938232422, -30.325790405273438, -28.79740333557129, -27.26901626586914, -25.74062728881836, -24.212238311767578, -22.683853149414062, -21.15546417236328, -19.6270751953125, -18.09868621826172, -16.570297241210938, -15.041912078857422, -13.51352310180664, -11.98513412475586, -10.456748962402344, -8.928359985351562, -7.399971008300781, -5.87158203125, -4.343193054199219, -2.814807891845703, -1.2864189147949219, 0.24197006225585938, 1.770355224609375, 3.2987442016601562, 4.8271331787109375, 6.355522155761719, 7.8839111328125, 9.412300109863281, 10.940681457519531, 12.469070434570312, 13.997459411621094, 15.525848388671875, 17.054237365722656, 18.582626342773438, 20.11101531982422, 21.639404296875, 23.16779327392578, 24.69617462158203, 26.224563598632812, 27.752952575683594, 29.281341552734375, 30.809730529785156, 32.33811950683594, 33.86650848388672, 35.39488983154297, 36.92327880859375, 38.45166778564453, 39.98005676269531, 41.508445739746094]}, "gradients/fc3.weight": {"_type": "histogram", "values": [1.0, 1.0, 0.0, 0.0, 0.0, 1.0, 0.0, 0.0, 1.0, 0.0, 0.0, 0.0, 2.0, 3.0, 2.0, 3.0, 1.0, 2.0, 4.0, 5.0, 3.0, 4.0, 4.0, 2.0, 4.0, 4.0, 4.0, 2.0, 4.0, 3.0, 6.0, 6.0, 5.0, 6.0, 6.0, 8.0, 12.0, 13.0, 9.0, 11.0, 28.0, 4442.0, 88.0, 65.0, 51.0, 28.0, 33.0, 21.0, 18.0, 19.0, 6.0, 16.0, 14.0, 6.0, 4.0, 5.0, 4.0, 2.0, 1.0, 2.0, 1.0, 0.0, 2.0, 2.0], "bins": [-1164.1376953125, -1136.1788330078125, -1108.2200927734375, -1080.26123046875, -1052.3023681640625, -1024.343505859375, -996.384765625, -968.4259033203125, -940.4671020507812, -912.5082397460938, -884.5494384765625, -856.590576171875, -828.6317749023438, -800.6729736328125, -772.714111328125, -744.7553100585938, -716.7965087890625, -688.837646484375, -660.8787841796875, -632.9199829101562, -604.961181640625, -577.0023193359375, -549.0435180664062, -521.084716796875, -493.1258544921875, -465.16705322265625, -437.20819091796875, -409.2493896484375, -381.29058837890625, -353.33172607421875, -325.3729248046875, -297.4140625, -269.45526123046875, -241.4964599609375, -213.53759765625, -185.57879638671875, -157.61993408203125, -129.6611328125, -101.7022705078125, -73.7435302734375, -45.78466796875, -17.8258056640625, 10.133056640625, 38.091796875, 66.0506591796875, 94.009521484375, 121.96826171875, 149.9271240234375, 177.885986328125, 205.8447265625, 233.8035888671875, 261.762451171875, 289.7213134765625, 317.6800537109375, 345.638916015625, 373.5977783203125, 401.5565185546875, 429.515380859375, 457.4742431640625, 485.4329833984375, 513.391845703125, 541.3507080078125, 569.3095703125, 597.268310546875, 625.2271728515625]}, "gradients/encode_conv1.weight": {"_type": "histogram", "values": [1.0, 0.0, 0.0, 0.0, 0.0, 0.0, 0.0, 0.0, 0.0, 0.0, 0.0, 0.0, 0.0, 1.0, 0.0, 1.0, 2.0, 0.0, 4.0, 3.0, 5.0, 5.0, 4.0, 8.0, 6.0, 44.0, 24.0, 10.0, 0.0, 0.0, 1.0, 1.0, 1.0, 0.0, 0.0, 1.0, 1.0, 1.0, 1.0, 2.0, 0.0, 2.0, 2.0, 1.0, 1.0, 1.0, 2.0, 1.0, 1.0, 1.0, 0.0, 0.0, 0.0, 2.0, 0.0, 1.0, 0.0, 0.0, 1.0, 0.0, 0.0, 0.0, 0.0, 1.0], "bins": [-1928.947998046875, -1853.5863037109375, -1778.224609375, -1702.863037109375, -1627.5013427734375, -1552.1396484375, -1476.778076171875, -1401.4163818359375, -1326.0546875, -1250.6929931640625, -1175.331298828125, -1099.9697265625, -1024.6080322265625, -949.246337890625, -873.884765625, -798.5230712890625, -723.161376953125, -647.7996826171875, -572.43798828125, -497.076416015625, -421.7147216796875, -346.35302734375, -270.991455078125, -195.6297607421875, -120.26806640625, -44.9063720703125, 30.455322265625, 105.81689453125, 181.178466796875, 256.540283203125, 331.90185546875, 407.263671875, 482.625244140625, 557.98681640625, 633.3486328125, 708.710205078125, 784.072021484375, 859.43359375, 934.795166015625, 1010.156982421875, 1085.5185546875, 1160.880126953125, 1236.241943359375, 1311.603515625, 1386.965087890625, 1462.326904296875, 1537.6884765625, 1613.05029296875, 1688.411865234375, 1763.7734375, 1839.13525390625, 1914.496826171875, 1989.858642578125, 2065.22021484375, 2140.581787109375, 2215.943603515625, 2291.304931640625, 2366.666748046875, 2442.028564453125, 2517.390380859375, 2592.751708984375, 2668.113525390625, 2743.475341796875, 2818.836669921875, 2894.198486328125]}, "gradients/fc1.weight": {"_type": "histogram", "values": [1.0, 0.0, 0.0, 0.0, 1.0, 0.0, 0.0, 0.0, 1.0, 0.0, 0.0, 0.0, 0.0, 0.0, 0.0, 1.0, 0.0, 0.0, 0.0, 0.0, 1.0, 0.0, 0.0, 0.0, 3.0, 3.0, 0.0, 7.0, 8.0, 7.0, 10.0, 9.0, 23.0, 39.0, 37.0, 102.0, 224.0, 828.0, 9068.0, 449.0, 150.0, 82.0, 47.0, 32.0, 14.0, 13.0, 10.0, 9.0, 4.0, 3.0, 2.0, 2.0, 3.0, 0.0, 1.0, 0.0, 0.0, 0.0, 0.0, 0.0, 1.0, 1.0, 2.0, 2.0], "bins": [-1552.83984375, -1512.3046875, -1471.76953125, -1431.2342529296875, -1390.6990966796875, -1350.1639404296875, -1309.6287841796875, -1269.0936279296875, -1228.558349609375, -1188.023193359375, -1147.488037109375, -1106.952880859375, -1066.417724609375, -1025.882568359375, -985.3473510742188, -944.8121337890625, -904.2769775390625, -863.7418212890625, -823.2066040039062, -782.6714477539062, -742.13623046875, -701.60107421875, -661.06591796875, -620.5307006835938, -579.9955444335938, -539.4603881835938, -498.9251708984375, -458.3900146484375, -417.8548583984375, -377.3197021484375, -336.784423828125, -296.249267578125, -255.714111328125, -215.178955078125, -174.643798828125, -134.1085205078125, -93.5733642578125, -53.0382080078125, -12.5030517578125, 28.0321044921875, 68.5673828125, 109.1025390625, 149.6376953125, 190.1728515625, 230.7080078125, 271.2431640625, 311.7784423828125, 352.3135986328125, 392.8487548828125, 433.3839111328125, 473.9190673828125, 514.454345703125, 554.989501953125, 595.524658203125, 636.059814453125, 676.594970703125, 717.130126953125, 757.665283203125, 798.200439453125, 838.73583984375, 879.27099609375, 919.80615234375, 960.34130859375, 1000.87646484375, 1041.41162109375]}, "gradients/encode_conv4.weight": {"_type": "histogram", "values": [2.0, 0.0, 0.0, 0.0, 3.0, 0.0, 2.0, 0.0, 0.0, 1.0, 1.0, 4.0, 2.0, 1.0, 2.0, 5.0, 3.0, 3.0, 1.0, 5.0, 3.0, 2.0, 2.0, 6.0, 3.0, 4.0, 9.0, 6.0, 3.0, 8.0, 10.0, 9.0, 21.0, 11.0, 14.0, 7.0, 4.0, 5.0, 4.0, 5.0, 3.0, 2.0, 2.0, 2.0, 0.0, 2.0, 1.0, 0.0, 2.0, 1.0, 0.0, 1.0, 1.0, 0.0, 0.0, 0.0, 0.0, 1.0, 0.0, 0.0, 0.0, 2.0, 0.0, 1.0], "bins": [-1669.8485107421875, -1618.836669921875, -1567.82470703125, -1516.8128662109375, -1465.8009033203125, -1414.7890625, -1363.777099609375, -1312.7652587890625, -1261.7532958984375, -1210.741455078125, -1159.7294921875, -1108.7176513671875, -1057.705810546875, -1006.69384765625, -955.6819458007812, -904.6700439453125, -853.6581420898438, -802.646240234375, -751.6343383789062, -700.6224365234375, -649.6105346679688, -598.5986328125, -547.5867919921875, -496.5748291015625, -445.56298828125, -394.551025390625, -343.5391845703125, -292.5272216796875, -241.515380859375, -190.50341796875, -139.4915771484375, -88.4796142578125, -37.4677734375, 13.5440673828125, 64.5560302734375, 115.56787109375, 166.579833984375, 217.5916748046875, 268.6036376953125, 319.615478515625, 370.62744140625, 421.6392822265625, 472.6512451171875, 523.6632080078125, 574.6749267578125, 625.6868896484375, 676.6988525390625, 727.7108154296875, 778.7225341796875, 829.7344970703125, 880.7464599609375, 931.7581787109375, 982.7701416015625, 1033.7821044921875, 1084.7940673828125, 1135.8057861328125, 1186.8177490234375, 1237.8297119140625, 1288.8416748046875, 1339.8533935546875, 1390.8653564453125, 1441.8773193359375, 1492.8892822265625, 1543.9010009765625, 1594.9129638671875]}, "gradients/encode_conv2.weight": {"_type": "histogram", "values": [1.0, 0.0, 0.0, 1.0, 0.0, 0.0, 0.0, 1.0, 0.0, 3.0, 1.0, 0.0, 0.0, 0.0, 1.0, 2.0, 1.0, 1.0, 0.0, 6.0, 19.0, 3.0, 0.0, 1.0, 0.0, 0.0, 0.0, 0.0, 1.0, 0.0, 0.0, 1.0, 0.0, 1.0, 1.0, 0.0, 0.0, 0.0, 1.0, 0.0, 0.0, 0.0, 0.0, 0.0, 0.0, 0.0, 0.0, 1.0, 0.0, 0.0, 0.0, 0.0, 0.0, 0.0, 0.0, 0.0, 0.0, 0.0, 0.0, 0.0, 0.0, 0.0, 0.0, 1.0], "bins": [-2187.298095703125, -2079.666748046875, -1972.035400390625, -1864.404052734375, -1756.772705078125, -1649.141357421875, -1541.5101318359375, -1433.8787841796875, -1326.2474365234375, -1218.6160888671875, -1110.9847412109375, -1003.3533935546875, -895.72216796875, -788.0908203125, -680.45947265625, -572.828125, -465.19677734375, -357.5654296875, -249.93408203125, -142.302734375, -34.67138671875, 72.9599609375, 180.59130859375, 288.22265625, 395.853759765625, 503.485107421875, 611.116455078125, 718.747802734375, 826.379150390625, 934.010498046875, 1041.641845703125, 1149.273193359375, 1256.904541015625, 1364.535888671875, 1472.167236328125, 1579.798583984375, 1687.429931640625, 1795.061279296875, 1902.692626953125, 2010.323974609375, 2117.955322265625, 2225.586669921875, 2333.218017578125, 2440.849365234375, 2548.480712890625, 2656.112060546875, 2763.743408203125, 2871.374755859375, 2979.005615234375, 3086.636962890625, 3194.268310546875, 3301.899658203125, 3409.531005859375, 3517.162353515625, 3624.793701171875, 3732.425048828125, 3840.056396484375, 3947.687744140625, 4055.319091796875, 4162.9501953125, 4270.58203125, 4378.212890625, 4485.8447265625, 4593.4755859375, 4701.107421875]}}
