{"graph_0": {"_type": "graph-file", "path": "media/graph/graph_0_summary_27c1e4c0.graph.json", "sha256": "27c1e4c0dc95d35adbc51caa270769cb1ac011e4bfb816d3c0c5676d97af99f2", "size": 1438}, "_step": 108, "_runtime": 54.18489909172058, "Train_loss": 797.435791015625, "_timestamp": 1593029985.924508, "distance": {"_type": "plotly-file", "path": "media/plotly/distance_97_2decf2cc.plotly.json", "sha256": "2decf2cc36a47c60d5ab36970884e5890ebf6fbbac0b80680690db063f8ad406", "size": 116584}, "Test_loss": 3211.330810546875, "gradients/fc3.bias": {"_type": "histogram", "values": [1.0, 1.0, 0.0, 0.0, 0.0, 0.0, 1.0, 0.0, 1.0, 0.0, 1.0, 0.0, 0.0, 1.0, 0.0, 1.0, 14.0, 0.0, 1.0, 1.0, 1.0, 0.0, 0.0, 0.0, 0.0, 0.0, 0.0, 0.0, 0.0, 0.0, 0.0, 0.0, 0.0, 0.0, 0.0, 0.0, 0.0, 0.0, 0.0, 0.0, 0.0, 0.0, 0.0, 0.0, 0.0, 0.0, 0.0, 0.0, 0.0, 0.0, 0.0, 0.0, 0.0, 0.0, 0.0, 0.0, 0.0, 0.0, 0.0, 0.0, 0.0, 0.0, 0.0, 1.0], "bins": [-19.936962127685547, -18.701894760131836, -17.466827392578125, -16.231760025024414, -14.996692657470703, -13.761625289916992, -12.526557922363281, -11.29149055480957, -10.05642318725586, -8.821355819702148, -7.5862884521484375, -6.351221084594727, -5.116153717041016, -3.8810863494873047, -2.6460189819335938, -1.4109516143798828, -0.17588424682617188, 1.059183120727539, 2.29425048828125, 3.529317855834961, 4.764385223388672, 5.999452590942383, 7.234519958496094, 8.469587326049805, 9.704654693603516, 10.939722061157227, 12.174789428710938, 13.409854888916016, 14.64492416381836, 15.879993438720703, 17.11505889892578, 18.35012435913086, 19.585193634033203, 20.820262908935547, 22.055328369140625, 23.290393829345703, 24.525463104248047, 25.76053237915039, 26.99559783935547, 28.230663299560547, 29.46573257446289, 30.700801849365234, 31.935867309570312, 33.17093276977539, 34.406002044677734, 35.64107131958008, 36.876136779785156, 38.111202239990234, 39.34627151489258, 40.58134078979492, 41.81640625, 43.05147171020508, 44.28654098510742, 45.521610260009766, 46.75667190551758, 47.99174118041992, 49.226810455322266, 50.46187973022461, 51.69694900512695, 52.932010650634766, 54.16707992553711, 55.40214920043945, 56.637210845947266, 57.87228012084961, 59.10734939575195]}, "gradients/encode_conv3.bias": {"_type": "histogram", "values": [1.0, 0.0, 1.0, 0.0, 0.0, 0.0, 0.0, 0.0, 0.0, 0.0, 0.0, 0.0, 0.0, 0.0, 0.0, 0.0, 0.0, 0.0, 0.0, 0.0, 0.0, 0.0, 0.0, 0.0, 0.0, 1.0, 0.0, 0.0, 0.0, 0.0, 0.0, 1.0, 0.0, 0.0, 0.0, 0.0, 0.0, 1.0, 0.0, 0.0, 0.0, 0.0, 1.0, 0.0, 0.0, 0.0, 0.0, 0.0, 0.0, 0.0, 0.0, 0.0, 0.0, 0.0, 0.0, 1.0, 0.0, 0.0, 0.0, 0.0, 0.0, 0.0, 0.0, 1.0], "bins": [-13.648846626281738, -13.241410255432129, -12.83397388458252, -12.42653751373291, -12.019102096557617, -11.611665725708008, -11.204229354858398, -10.796792984008789, -10.38935661315918, -9.98192024230957, -9.574483871459961, -9.167047500610352, -8.759611129760742, -8.352174758911133, -7.94473934173584, -7.5373029708862305, -7.129866600036621, -6.722430229187012, -6.314993858337402, -5.907557964324951, -5.500121116638184, -5.092685699462891, -4.685249328613281, -4.277812957763672, -3.8703765869140625, -3.462940216064453, -3.0555038452148438, -2.6480674743652344, -2.2406320571899414, -1.833195686340332, -1.4257593154907227, -1.0183229446411133, -0.6108865737915039, -0.20345020294189453, 0.20398616790771484, 0.6114225387573242, 1.0188589096069336, 1.4262943267822266, 1.833730697631836, 2.2411670684814453, 2.648604393005371, 3.0560388565063477, 3.463475227355957, 3.8709115982055664, 4.278347969055176, 4.685784339904785, 5.0932207107543945, 5.500657081604004, 5.908093452453613, 6.315529823303223, 6.722966194152832, 7.130402565002441, 7.537838935852051, 7.94527530670166, 8.35271167755127, 8.760148048400879, 9.167582511901855, 9.575018882751465, 9.982455253601074, 10.389891624450684, 10.797327995300293, 11.204764366149902, 11.612200736999512, 12.019637107849121, 12.42707347869873]}, "gradients/encode_conv2.bias": {"_type": "histogram", "values": [1.0, 0.0, 0.0, 0.0, 0.0, 0.0, 0.0, 0.0, 0.0, 0.0, 0.0, 0.0, 0.0, 0.0, 0.0, 0.0, 0.0, 0.0, 0.0, 0.0, 0.0, 0.0, 0.0, 0.0, 0.0, 0.0, 0.0, 0.0, 0.0, 0.0, 0.0, 0.0, 0.0, 0.0, 0.0, 0.0, 1.0, 0.0, 0.0, 0.0, 0.0, 0.0, 0.0, 0.0, 0.0, 0.0, 0.0, 0.0, 0.0, 0.0, 0.0, 0.0, 0.0, 0.0, 0.0, 0.0, 0.0, 0.0, 0.0, 1.0, 0.0, 0.0, 0.0, 1.0], "bins": [-3.382552146911621, -3.2834677696228027, -3.1843836307525635, -3.085299253463745, -2.986215114593506, -2.8871307373046875, -2.788046360015869, -2.68896222114563, -2.5898780822753906, -2.4907937049865723, -2.391709327697754, -2.2926251888275146, -2.1935408115386963, -2.094456672668457, -1.9953722953796387, -1.8962880373001099, -1.797203779220581, -1.6981195211410522, -1.5990352630615234, -1.4999510049819946, -1.4008667469024658, -1.3017823696136475, -1.2026982307434082, -1.1036138534545898, -1.0045294761657715, -0.9054453372955322, -0.8063609600067139, -0.7072768211364746, -0.6081924438476562, -0.509108304977417, -0.41002392768859863, -0.3109397888183594, -0.21185541152954102, -0.11277103424072266, -0.013686895370483398, 0.08539748191833496, 0.18448162078857422, 0.2835659980773926, 0.38265013694763184, 0.4817345142364502, 0.5808186531066895, 0.6799030303955078, 0.7789874076843262, 0.8780717849731445, 0.9771556854248047, 1.076240062713623, 1.1753244400024414, 1.2744088172912598, 1.3734931945800781, 1.4725770950317383, 1.5716614723205566, 1.670745849609375, 1.7698302268981934, 1.8689141273498535, 1.9679985046386719, 2.0670828819274902, 2.1661672592163086, 2.265251636505127, 2.364335536956787, 2.4634199142456055, 2.562504291534424, 2.661588668823242, 2.7606725692749023, 2.8597569465637207, 2.958841323852539]}, "gradients/encode_conv2.weight": {"_type": "histogram", "values": [1.0, 0.0, 0.0, 0.0, 0.0, 0.0, 0.0, 0.0, 0.0, 0.0, 0.0, 0.0, 0.0, 1.0, 0.0, 0.0, 0.0, 0.0, 1.0, 0.0, 0.0, 0.0, 0.0, 0.0, 0.0, 0.0, 0.0, 1.0, 0.0, 0.0, 1.0, 0.0, 1.0, 1.0, 1.0, 0.0, 2.0, 2.0, 0.0, 3.0, 5.0, 2.0, 4.0, 5.0, 1.0, 3.0, 0.0, 2.0, 2.0, 1.0, 3.0, 0.0, 1.0, 0.0, 0.0, 0.0, 0.0, 0.0, 0.0, 0.0, 2.0, 1.0, 0.0, 1.0], "bins": [-1073.970458984375, -1049.4085693359375, -1024.8466796875, -1000.2848510742188, -975.7230224609375, -951.1611328125, -926.5992431640625, -902.0374145507812, -877.4755859375, -852.9136962890625, -828.351806640625, -803.7899780273438, -779.2280883789062, -754.666259765625, -730.1043701171875, -705.54248046875, -680.9806518554688, -656.4188232421875, -631.85693359375, -607.2950439453125, -582.7332153320312, -558.1713256835938, -533.6094970703125, -509.047607421875, -484.4857177734375, -459.92388916015625, -435.36199951171875, -410.8001708984375, -386.23828125, -361.67645263671875, -337.11456298828125, -312.552734375, -287.9908447265625, -263.428955078125, -238.86712646484375, -214.30523681640625, -189.743408203125, -165.1815185546875, -140.61968994140625, -116.05780029296875, -91.4959716796875, -66.93408203125, -42.3721923828125, -17.810302734375, 6.75146484375, 31.3133544921875, 55.875244140625, 80.4371337890625, 104.9990234375, 129.560791015625, 154.1226806640625, 178.6845703125, 203.2464599609375, 227.8082275390625, 252.3701171875, 276.9320068359375, 301.493896484375, 326.0557861328125, 350.6175537109375, 375.179443359375, 399.7413330078125, 424.30322265625, 448.864990234375, 473.4268798828125, 497.98876953125]}, "gradients/encode_conv1.weight": {"_type": "histogram", "values": [1.0, 0.0, 0.0, 1.0, 0.0, 0.0, 0.0, 1.0, 0.0, 3.0, 1.0, 0.0, 1.0, 2.0, 1.0, 0.0, 2.0, 1.0, 1.0, 0.0, 2.0, 2.0, 0.0, 2.0, 3.0, 5.0, 6.0, 3.0, 6.0, 5.0, 5.0, 6.0, 7.0, 6.0, 2.0, 9.0, 9.0, 8.0, 5.0, 4.0, 5.0, 4.0, 7.0, 2.0, 2.0, 5.0, 0.0, 1.0, 0.0, 2.0, 1.0, 0.0, 1.0, 1.0, 0.0, 0.0, 0.0, 0.0, 1.0, 0.0, 1.0, 0.0, 0.0, 1.0], "bins": [-992.10205078125, -963.3560791015625, -934.6100463867188, -905.8640747070312, -877.1180419921875, -848.3720703125, -819.6260986328125, -790.8800659179688, -762.134033203125, -733.3880615234375, -704.64208984375, -675.8960571289062, -647.1500854492188, -618.404052734375, -589.6580810546875, -560.912109375, -532.1660766601562, -503.4200744628906, -474.674072265625, -445.9281005859375, -417.18206787109375, -388.43609619140625, -359.6900634765625, -330.944091796875, -302.1981201171875, -273.45208740234375, -244.70611572265625, -215.9600830078125, -187.214111328125, -158.46807861328125, -129.72210693359375, -100.97607421875, -72.2301025390625, -43.484130859375, -14.73809814453125, 14.00787353515625, 42.75390625, 71.4998779296875, 100.245849609375, 128.991943359375, 157.7379150390625, 186.48388671875, 215.2298583984375, 243.975830078125, 272.721923828125, 301.4678955078125, 330.2138671875, 358.9598388671875, 387.705810546875, 416.451904296875, 445.1978759765625, 473.94384765625, 502.6898193359375, 531.4359130859375, 560.181884765625, 588.9278564453125, 617.673828125, 646.4197998046875, 675.1658935546875, 703.911865234375, 732.6578369140625, 761.40380859375, 790.14990234375, 818.8958740234375, 847.641845703125]}, "gradients/fc1.weight": {"_type": "histogram", "values": [1.0, 0.0, 0.0, 0.0, 0.0, 0.0, 0.0, 0.0, 0.0, 0.0, 0.0, 0.0, 0.0, 0.0, 0.0, 0.0, 1.0, 0.0, 0.0, 0.0, 1.0, 1.0, 0.0, 0.0, 0.0, 1.0, 0.0, 1.0, 0.0, 2.0, 1.0, 1.0, 1.0, 0.0, 5.0, 3.0, 5.0, 1.0, 7.0, 3.0, 6.0, 8.0, 12.0, 19.0, 23.0, 32.0, 56.0, 88.0, 276.0, 1879.0, 8282.0, 259.0, 92.0, 46.0, 26.0, 24.0, 15.0, 4.0, 4.0, 2.0, 4.0, 3.0, 2.0, 3.0], "bins": [-684.17041015625, -670.509033203125, -656.84765625, -643.186279296875, -629.52490234375, -615.863525390625, -602.2021484375, -588.540771484375, -574.87939453125, -561.218017578125, -547.556640625, -533.895263671875, -520.23388671875, -506.572509765625, -492.9111328125, -479.249755859375, -465.58837890625, -451.927001953125, -438.265625, -424.6042785644531, -410.9429016113281, -397.2815246582031, -383.6201477050781, -369.9587707519531, -356.2973937988281, -342.6360168457031, -328.9746398925781, -315.3132629394531, -301.6518859863281, -287.9905090332031, -274.3291320800781, -260.6677551269531, -247.00637817382812, -233.34500122070312, -219.68362426757812, -206.02224731445312, -192.36087036132812, -178.69949340820312, -165.03814697265625, -151.37677001953125, -137.71539306640625, -124.05401611328125, -110.39263916015625, -96.73126220703125, -83.06988525390625, -69.40850830078125, -55.74713134765625, -42.08575439453125, -28.42437744140625, -14.76300048828125, -1.10162353515625, 12.55975341796875, 26.22113037109375, 39.88250732421875, 53.54388427734375, 67.20526123046875, 80.86663818359375, 94.52801513671875, 108.18939208984375, 121.85076904296875, 135.51214599609375, 149.17352294921875, 162.83489990234375, 176.49627685546875, 190.15765380859375]}, "gradients/encode_conv1.bias": {"_type": "histogram", "values": [1.0, 0.0, 0.0, 0.0, 0.0, 1.0, 0.0, 0.0, 0.0, 0.0, 0.0, 0.0, 0.0, 0.0, 0.0, 0.0, 0.0, 0.0, 0.0, 0.0, 0.0, 0.0, 0.0, 0.0, 0.0, 0.0, 0.0, 0.0, 0.0, 0.0, 0.0, 0.0, 0.0, 0.0, 0.0, 0.0, 0.0, 0.0, 0.0, 0.0, 0.0, 0.0, 0.0, 0.0, 0.0, 0.0, 0.0, 0.0, 0.0, 0.0, 0.0, 0.0, 1.0, 0.0, 0.0, 0.0, 0.0, 0.0, 0.0, 0.0, 0.0, 0.0, 0.0, 1.0], "bins": [-1.1293466091156006, -1.0998224020004272, -1.0702980756759644, -1.040773868560791, -1.0112496614456177, -0.9817253947257996, -0.9522011280059814, -0.9226769208908081, -0.89315265417099, -0.8636283874511719, -0.8341041803359985, -0.8045799136161804, -0.7750556468963623, -0.745531439781189, -0.7160071730613708, -0.6864829063415527, -0.6569586992263794, -0.6274344325065613, -0.5979102253913879, -0.5683859586715698, -0.5388617515563965, -0.5093374848365784, -0.47981321811676025, -0.4502890110015869, -0.4207647442817688, -0.3912404775619507, -0.36171627044677734, -0.33219200372695923, -0.3026677370071411, -0.2731435298919678, -0.24361926317214966, -0.21409505605697632, -0.1845707893371582, -0.1550465226173401, -0.12552225589752197, -0.09599804878234863, -0.06647384166717529, -0.0369495153427124, -0.0074253082275390625, 0.022098898887634277, 0.05162310600280762, 0.08114743232727051, 0.11067163944244385, 0.1401958465576172, 0.16972017288208008, 0.19924437999725342, 0.22876858711242676, 0.25829291343688965, 0.287817120552063, 0.31734132766723633, 0.3468656539916992, 0.37638986110687256, 0.4059140682220459, 0.4354383945465088, 0.46496260166168213, 0.49448680877685547, 0.5240111351013184, 0.5535353422164917, 0.583059549331665, 0.6125837564468384, 0.6421080827713013, 0.6716322898864746, 0.701156497001648, 0.7306808233261108, 0.7602050304412842]}, "gradients/encode_conv4.weight": {"_type": "histogram", "values": [2.0, 0.0, 1.0, 0.0, 1.0, 0.0, 0.0, 0.0, 1.0, 0.0, 2.0, 0.0, 0.0, 1.0, 1.0, 0.0, 0.0, 1.0, 1.0, 3.0, 5.0, 4.0, 9.0, 18.0, 73.0, 16.0, 6.0, 7.0, 7.0, 4.0, 9.0, 3.0, 3.0, 1.0, 0.0, 1.0, 1.0, 1.0, 1.0, 1.0, 2.0, 1.0, 1.0, 1.0, 0.0, 0.0, 1.0, 0.0, 0.0, 1.0, 0.0, 0.0, 0.0, 0.0, 0.0, 0.0, 0.0, 0.0, 0.0, 0.0, 0.0, 0.0, 0.0, 1.0], "bins": [-712.6559448242188, -683.6405029296875, -654.6251220703125, -625.6097412109375, -596.5942993164062, -567.578857421875, -538.5634765625, -509.5480651855469, -480.53265380859375, -451.5172424316406, -422.5018310546875, -393.4864196777344, -364.47100830078125, -335.4555969238281, -306.440185546875, -277.4247741699219, -248.40936279296875, -219.39395141601562, -190.3785400390625, -161.36309814453125, -132.34771728515625, -103.33233642578125, -74.31689453125, -45.30145263671875, -16.28607177734375, 12.72930908203125, 41.7447509765625, 70.76019287109375, 99.77557373046875, 128.79095458984375, 157.806396484375, 186.82183837890625, 215.83721923828125, 244.85260009765625, 273.8680419921875, 302.88348388671875, 331.89886474609375, 360.91424560546875, 389.92974853515625, 418.94512939453125, 447.96051025390625, 476.97589111328125, 505.99127197265625, 535.0067749023438, 564.0221557617188, 593.0375366210938, 622.0530395507812, 651.0684204101562, 680.0838012695312, 709.0991821289062, 738.1145629882812, 767.1300659179688, 796.1454467773438, 825.1608276367188, 854.1763305664062, 883.1917114257812, 912.2070922851562, 941.2224731445312, 970.2378540039062, 999.2533569335938, 1028.268798828125, 1057.2841796875, 1086.299560546875, 1115.31494140625, 1144.330322265625]}, "gradients/encode_conv4.bias": {"_type": "histogram", "values": [1.0, 0.0, 0.0, 0.0, 0.0, 0.0, 0.0, 0.0, 0.0, 0.0, 0.0, 0.0, 0.0, 0.0, 0.0, 0.0, 0.0, 0.0, 0.0, 1.0, 0.0, 0.0, 0.0, 0.0, 0.0, 0.0, 0.0, 0.0, 0.0, 0.0, 0.0, 0.0, 0.0, 0.0, 1.0, 0.0, 0.0, 0.0, 0.0, 1.0, 0.0, 1.0, 0.0, 0.0, 0.0, 0.0, 0.0, 0.0, 0.0, 0.0, 0.0, 0.0, 0.0, 0.0, 1.0, 0.0, 0.0, 0.0, 0.0, 1.0, 0.0, 0.0, 0.0, 1.0], "bins": [-19.318233489990234, -18.747379302978516, -18.17652702331543, -17.605674743652344, -17.034820556640625, -16.463966369628906, -15.89311408996582, -15.322260856628418, -14.751407623291016, -14.180554389953613, -13.609701156616211, -13.038847923278809, -12.467994689941406, -11.897141456604004, -11.326288223266602, -10.7554349899292, -10.184581756591797, -9.613728523254395, -9.042875289916992, -8.47202205657959, -7.9011688232421875, -7.330315589904785, -6.759462356567383, -6.1886091232299805, -5.617755889892578, -5.046902656555176, -4.476049423217773, -3.905196189880371, -3.3343429565429688, -2.76348876953125, -2.192636489868164, -1.6217842102050781, -1.0509300231933594, -0.4800758361816406, 0.09077644348144531, 0.6616287231445312, 1.23248291015625, 1.8033370971679688, 2.3741893768310547, 2.9450416564941406, 3.5158958435058594, 4.086750030517578, 4.657602310180664, 5.22845458984375, 5.799308776855469, 6.3701629638671875, 6.941015243530273, 7.511867523193359, 8.082721710205078, 8.653575897216797, 9.224428176879883, 9.795280456542969, 10.366134643554688, 10.936988830566406, 11.507841110229492, 12.078693389892578, 12.649547576904297, 13.220401763916016, 13.791255950927734, 14.362106323242188, 14.932960510253906, 15.503814697265625, 16.074665069580078, 16.645519256591797, 17.216373443603516]}, "gradients/encode_conv3.weight": {"_type": "histogram", "values": [1.0, 0.0, 0.0, 0.0, 0.0, 0.0, 0.0, 0.0, 0.0, 1.0, 0.0, 0.0, 0.0, 0.0, 0.0, 0.0, 1.0, 1.0, 2.0, 0.0, 4.0, 2.0, 2.0, 6.0, 5.0, 8.0, 4.0, 7.0, 28.0, 4.0, 3.0, 1.0, 2.0, 3.0, 0.0, 0.0, 1.0, 1.0, 0.0, 3.0, 1.0, 0.0, 0.0, 0.0, 0.0, 0.0, 0.0, 1.0, 0.0, 1.0, 0.0, 0.0, 0.0, 0.0, 0.0, 1.0, 1.0, 0.0, 0.0, 0.0, 0.0, 0.0, 0.0, 1.0], "bins": [-865.4279174804688, -834.9351196289062, -804.4422607421875, -773.949462890625, -743.4566650390625, -712.9638671875, -682.4710693359375, -651.9782104492188, -621.4854125976562, -590.9926147460938, -560.499755859375, -530.0069580078125, -499.51416015625, -469.0213623046875, -438.5285339355469, -408.03570556640625, -377.54290771484375, -347.05010986328125, -316.55731201171875, -286.064453125, -255.5716552734375, -225.078857421875, -194.58599853515625, -164.09320068359375, -133.60040283203125, -103.10760498046875, -72.61480712890625, -42.1219482421875, -11.629150390625, 18.8636474609375, 49.35650634765625, 79.84930419921875, 110.34210205078125, 140.83489990234375, 171.32769775390625, 201.82049560546875, 232.31329345703125, 262.80621337890625, 293.29901123046875, 323.79180908203125, 354.28460693359375, 384.77740478515625, 415.27020263671875, 445.76300048828125, 476.25592041015625, 506.74871826171875, 537.2415161132812, 567.7343139648438, 598.2271118164062, 628.7199096679688, 659.2127075195312, 689.7055053710938, 720.1983032226562, 750.6912231445312, 781.1840209960938, 811.6768188476562, 842.1696166992188, 872.6624145507812, 903.1552124023438, 933.6480102539062, 964.1409301757812, 994.6337280273438, 1025.12646484375, 1055.619384765625, 1086.112060546875]}, "gradients/fc3.weight": {"_type": "histogram", "values": [1.0, 1.0, 2.0, 1.0, 4.0, 5.0, 8.0, 12.0, 11.0, 12.0, 27.0, 42.0, 42.0, 55.0, 59.0, 79.0, 138.0, 386.0, 3723.0, 161.0, 57.0, 32.0, 26.0, 15.0, 9.0, 9.0, 9.0, 5.0, 5.0, 8.0, 4.0, 2.0, 3.0, 2.0, 6.0, 6.0, 3.0, 4.0, 1.0, 1.0, 4.0, 3.0, 1.0, 1.0, 1.0, 2.0, 0.0, 2.0, 1.0, 1.0, 0.0, 0.0, 1.0, 1.0, 0.0, 1.0, 2.0, 0.0, 0.0, 2.0, 0.0, 0.0, 0.0, 1.0], "bins": [-213.84799194335938, -202.0429229736328, -190.23785400390625, -178.4327850341797, -166.62771606445312, -154.82264709472656, -143.017578125, -131.21250915527344, -119.40744018554688, -107.60237121582031, -95.79730224609375, -83.99223327636719, -72.18716430664062, -60.38209533691406, -48.5770263671875, -36.77195739746094, -24.966888427734375, -13.161819458007812, -1.35675048828125, 10.448318481445312, 22.253387451171875, 34.05845642089844, 45.863525390625, 57.668609619140625, 69.47366333007812, 81.27871704101562, 93.08380126953125, 104.88888549804688, 116.69393920898438, 128.49899291992188, 140.3040771484375, 152.10916137695312, 163.91421508789062, 175.71926879882812, 187.52435302734375, 199.32943725585938, 211.13449096679688, 222.93954467773438, 234.74462890625, 246.54971313476562, 258.3547668457031, 270.1598205566406, 281.96490478515625, 293.7699890136719, 305.5750427246094, 317.3800964355469, 329.1852111816406, 340.9902648925781, 352.7953186035156, 364.6003723144531, 376.4054260253906, 388.2105407714844, 400.0155944824219, 411.8206481933594, 423.6257629394531, 435.4308166503906, 447.2358703613281, 459.0409240722656, 470.8459777832031, 482.6510925292969, 494.4561462402344, 506.2611999511719, 518.0662841796875, 529.871337890625, 541.6763916015625]}, "gradients/fc1.bias": {"_type": "histogram", "values": [1.0, 0.0, 0.0, 0.0, 0.0, 0.0, 0.0, 0.0, 0.0, 0.0, 0.0, 0.0, 0.0, 0.0, 0.0, 0.0, 0.0, 0.0, 0.0, 0.0, 1.0, 0.0, 1.0, 0.0, 1.0, 0.0, 0.0, 0.0, 0.0, 0.0, 0.0, 0.0, 1.0, 1.0, 0.0, 1.0, 1.0, 1.0, 1.0, 2.0, 1.0, 4.0, 3.0, 2.0, 5.0, 5.0, 4.0, 3.0, 14.0, 20.0, 27.0, 47.0, 5.0, 9.0, 7.0, 5.0, 4.0, 8.0, 6.0, 2.0, 3.0, 3.0, 0.0, 1.0], "bins": [-27.84183120727539, -27.296232223510742, -26.750633239746094, -26.205034255981445, -25.659435272216797, -25.11383628845215, -24.5682373046875, -24.02263832092285, -23.477039337158203, -22.931440353393555, -22.385841369628906, -21.840242385864258, -21.29464340209961, -20.74904441833496, -20.203445434570312, -19.657846450805664, -19.112247467041016, -18.566648483276367, -18.02104949951172, -17.47545051574707, -16.929851531982422, -16.384252548217773, -15.838653564453125, -15.293054580688477, -14.747455596923828, -14.20185661315918, -13.656257629394531, -13.110658645629883, -12.565059661865234, -12.019460678100586, -11.473861694335938, -10.928262710571289, -10.38266372680664, -9.837064743041992, -9.291465759277344, -8.745866775512695, -8.200267791748047, -7.654668807983398, -7.10906982421875, -6.563470840454102, -6.017871856689453, -5.472272872924805, -4.926673889160156, -4.381074905395508, -3.8354759216308594, -3.289876937866211, -2.7442779541015625, -2.198678970336914, -1.6530799865722656, -1.1074810028076172, -0.5618820190429688, -0.016283035278320312, 0.5293159484863281, 1.0749149322509766, 1.620513916015625, 2.1661128997802734, 2.711711883544922, 3.2573108673095703, 3.8029098510742188, 4.348506927490234, 4.894107818603516, 5.439708709716797, 5.9853057861328125, 6.530902862548828, 7.076503753662109]}}
