{"graph_0": {"_type": "graph-file", "path": "media/graph/graph_0_summary_3bf72009.graph.json", "sha256": "3bf72009cd709e957202dc9fada3f370f17f00cab45281949a54b4929c4b503c", "size": 1448}, "_runtime": 88.76091003417969, "Train_loss": 726.4547424316406, "_timestamp": 1593035278.8610997, "distance": {"_type": "plotly-file", "path": "media/plotly/distance_0_d37cf13a.plotly.json", "sha256": "d37cf13a829fc01d87306ccbb790c9464d06460ecd97b8bb70c3398297e96df4", "size": 34396}, "_step": 99, "Test_loss": 6086.83349609375, "gradients/fc1.bias": {"_type": "histogram", "values": [1.0, 0.0, 0.0, 0.0, 0.0, 0.0, 0.0, 0.0, 0.0, 0.0, 0.0, 0.0, 0.0, 0.0, 0.0, 0.0, 1.0, 0.0, 0.0, 0.0, 1.0, 0.0, 0.0, 0.0, 0.0, 0.0, 0.0, 1.0, 1.0, 3.0, 5.0, 4.0, 5.0, 7.0, 14.0, 11.0, 13.0, 70.0, 14.0, 5.0, 12.0, 15.0, 4.0, 4.0, 1.0, 0.0, 0.0, 0.0, 1.0, 0.0, 0.0, 2.0, 1.0, 0.0, 0.0, 1.0, 0.0, 0.0, 0.0, 0.0, 1.0, 0.0, 0.0, 2.0], "bins": [-61.397438049316406, -59.756492614746094, -58.11554718017578, -56.4745979309082, -54.83365249633789, -53.19270706176758, -51.5517578125, -49.91081237792969, -48.269866943359375, -46.62892150878906, -44.98797607421875, -43.34702682495117, -41.70608139038086, -40.06513595581055, -38.42418670654297, -36.783241271972656, -35.142295837402344, -33.50135040283203, -31.860403060913086, -30.21945571899414, -28.578510284423828, -26.937564849853516, -25.296615600585938, -23.655670166015625, -22.014724731445312, -20.373779296875, -18.732833862304688, -17.09188461303711, -15.450939178466797, -13.809993743896484, -12.169044494628906, -10.528099060058594, -8.887153625488281, -7.246208190917969, -5.605262756347656, -3.964313507080078, -2.3233680725097656, -0.6824226379394531, 0.958526611328125, 2.5994720458984375, 4.24041748046875, 5.8813629150390625, 7.522308349609375, 9.163253784179688, 10.804206848144531, 12.445152282714844, 14.086097717285156, 15.727043151855469, 17.36798858642578, 19.008934020996094, 20.649879455566406, 22.29082489013672, 23.93177032470703, 25.572723388671875, 27.213668823242188, 28.8546142578125, 30.495559692382812, 32.136505126953125, 33.77745056152344, 35.41839599609375, 37.059349060058594, 38.700294494628906, 40.34123992919922, 41.98218536376953, 43.623130798339844]}, "gradients/fc1.weight": {"_type": "histogram", "values": [1.0, 0.0, 0.0, 0.0, 0.0, 0.0, 0.0, 1.0, 1.0, 0.0, 2.0, 1.0, 2.0, 1.0, 1.0, 1.0, 2.0, 7.0, 2.0, 4.0, 4.0, 3.0, 10.0, 3.0, 27.0, 22.0, 43.0, 51.0, 104.0, 181.0, 431.0, 1137.0, 7556.0, 27031.0, 1942.0, 737.0, 278.0, 155.0, 93.0, 55.0, 25.0, 20.0, 12.0, 11.0, 6.0, 9.0, 6.0, 5.0, 6.0, 2.0, 1.0, 1.0, 0.0, 3.0, 1.0, 1.0, 1.0, 0.0, 0.0, 0.0, 0.0, 0.0, 0.0, 1.0], "bins": [-151.56088256835938, -146.98565673828125, -142.41041564941406, -137.83518981933594, -133.2599639892578, -128.68472290039062, -124.1094970703125, -119.53427124023438, -114.95903778076172, -110.38380432128906, -105.80857849121094, -101.23334503173828, -96.65811157226562, -92.0828857421875, -87.50765228271484, -82.93242645263672, -78.35719299316406, -73.7819595336914, -69.20673370361328, -64.63150024414062, -60.0562744140625, -55.481040954589844, -50.90580749511719, -46.33058166503906, -41.755348205566406, -37.18011474609375, -32.604888916015625, -28.02965545654297, -23.454421997070312, -18.879196166992188, -14.303970336914062, -9.728729248046875, -5.15350341796875, -0.578277587890625, 3.9969635009765625, 8.572189331054688, 13.147415161132812, 17.72265625, 22.297882080078125, 26.87310791015625, 31.448333740234375, 36.02357482910156, 40.59880065917969, 45.17402648925781, 49.749267578125, 54.324493408203125, 58.89971923828125, 63.47496032714844, 68.05018615722656, 72.62541198730469, 77.20065307617188, 81.77587890625, 86.35110473632812, 90.92634582519531, 95.50157165527344, 100.07679748535156, 104.65203857421875, 109.22726440429688, 113.802490234375, 118.37771606445312, 122.95294189453125, 127.5281982421875, 132.10342407226562, 136.67864990234375, 141.25387573242188]}, "gradients/fc3.bias": {"_type": "histogram", "values": [1.0, 0.0, 0.0, 0.0, 0.0, 0.0, 0.0, 0.0, 0.0, 0.0, 0.0, 0.0, 0.0, 0.0, 0.0, 0.0, 0.0, 0.0, 0.0, 0.0, 0.0, 2.0, 5.0, 1.0, 2.0, 7.0, 8.0, 14.0, 19.0, 16.0, 14.0, 8.0, 2.0, 0.0, 0.0, 0.0, 0.0, 0.0, 0.0, 0.0, 0.0, 0.0, 0.0, 0.0, 0.0, 0.0, 0.0, 0.0, 0.0, 0.0, 0.0, 0.0, 0.0, 0.0, 0.0, 0.0, 0.0, 0.0, 0.0, 0.0, 0.0, 0.0, 0.0, 1.0], "bins": [-63.15790939331055, -60.92257308959961, -58.68724060058594, -56.451904296875, -54.21656799316406, -51.981231689453125, -49.74589538574219, -47.510562896728516, -45.27522659301758, -43.03989028930664, -40.80455780029297, -38.56922149658203, -36.333885192871094, -34.098548889160156, -31.86321449279785, -29.627880096435547, -27.39254379272461, -25.157207489013672, -22.921871185302734, -20.686538696289062, -18.451202392578125, -16.215866088867188, -13.980533599853516, -11.745197296142578, -9.50986099243164, -7.274524688720703, -5.039188385009766, -2.8038558959960938, -0.5685195922851562, 1.6668128967285156, 3.902149200439453, 6.137485504150391, 8.372821807861328, 10.608158111572266, 12.843494415283203, 15.07883071899414, 17.314167022705078, 19.549495697021484, 21.784832000732422, 24.02016830444336, 26.255504608154297, 28.490840911865234, 30.726177215576172, 32.96151351928711, 35.196842193603516, 37.43217849731445, 39.66751480102539, 41.90285110473633, 44.138187408447266, 46.3735237121582, 48.60886001586914, 50.84419631958008, 53.079532623291016, 55.31486129760742, 57.55019760131836, 59.7855339050293, 62.020870208740234, 64.25621032714844, 66.49153137207031, 68.72686767578125, 70.96220397949219, 73.19754028320312, 75.43287658691406, 77.668212890625, 79.90354919433594]}, "gradients/encode_conv4.weight": {"_type": "histogram", "values": [2.0, 0.0, 0.0, 0.0, 0.0, 0.0, 0.0, 1.0, 0.0, 0.0, 2.0, 0.0, 0.0, 2.0, 0.0, 2.0, 2.0, 1.0, 2.0, 2.0, 0.0, 1.0, 1.0, 2.0, 4.0, 2.0, 2.0, 7.0, 6.0, 11.0, 12.0, 8.0, 7.0, 7.0, 7.0, 8.0, 5.0, 12.0, 12.0, 8.0, 8.0, 4.0, 3.0, 8.0, 6.0, 3.0, 3.0, 2.0, 6.0, 0.0, 0.0, 1.0, 2.0, 0.0, 1.0, 2.0, 1.0, 0.0, 1.0, 0.0, 1.0, 0.0, 0.0, 2.0], "bins": [-125.05937957763672, -121.40585327148438, -117.75232696533203, -114.09880065917969, -110.44527435302734, -106.791748046875, -103.13822174072266, -99.48469543457031, -95.83116912841797, -92.17764282226562, -88.52412414550781, -84.87059020996094, -81.21707153320312, -77.56353759765625, -73.91001892089844, -70.25648498535156, -66.60296630859375, -62.94943618774414, -59.29591369628906, -55.64238739013672, -51.988861083984375, -48.33533477783203, -44.68180847167969, -41.028282165527344, -37.374755859375, -33.721229553222656, -30.067703247070312, -26.41417694091797, -22.760650634765625, -19.10712432861328, -15.453598022460938, -11.800071716308594, -8.14654541015625, -4.493019104003906, -0.8394927978515625, 2.8140335083007812, 6.467552185058594, 10.121086120605469, 13.774604797363281, 17.428138732910156, 21.08165740966797, 24.735191345214844, 28.388710021972656, 32.04224395751953, 35.695762634277344, 39.34929656982422, 43.00281524658203, 46.656349182128906, 50.30986785888672, 53.963401794433594, 57.616920471191406, 61.27045440673828, 64.9239730834961, 68.57750701904297, 72.23102569580078, 75.88455963134766, 79.53807830810547, 83.19161224365234, 86.84513092041016, 90.49866485595703, 94.15218353271484, 97.80571746826172, 101.45923614501953, 105.1127700805664, 108.76628875732422]}, "gradients/encode_conv1.bias": {"_type": "histogram", "values": [1.0, 0.0, 0.0, 0.0, 0.0, 0.0, 0.0, 0.0, 0.0, 0.0, 0.0, 0.0, 0.0, 0.0, 0.0, 0.0, 0.0, 0.0, 1.0, 0.0, 0.0, 0.0, 0.0, 0.0, 0.0, 0.0, 0.0, 0.0, 0.0, 0.0, 0.0, 0.0, 0.0, 0.0, 0.0, 0.0, 0.0, 0.0, 0.0, 0.0, 0.0, 0.0, 0.0, 0.0, 0.0, 0.0, 0.0, 0.0, 1.0, 0.0, 0.0, 0.0, 0.0, 0.0, 0.0, 0.0, 0.0, 0.0, 0.0, 0.0, 0.0, 0.0, 0.0, 1.0], "bins": [-6.567639350891113, -6.361695766448975, -6.155752182006836, -5.949808120727539, -5.7438645362854, -5.537920951843262, -5.331977367401123, -5.126033782958984, -4.920090198516846, -4.714146614074707, -4.50820255279541, -4.30225944519043, -4.096315383911133, -3.890371799468994, -3.6844282150268555, -3.4784843921661377, -3.272540807723999, -3.0665972232818604, -2.8606534004211426, -2.654709815979004, -2.4487662315368652, -2.2428226470947266, -2.036879062652588, -1.830935001373291, -1.6249914169311523, -1.4190478324890137, -1.213104248046875, -1.0071606636047363, -0.8012170791625977, -0.5952730178833008, -0.3893294334411621, -0.18338584899902344, 0.022557735443115234, 0.2285013198852539, 0.4344449043273926, 0.6403884887695312, 0.8463325500488281, 1.0522761344909668, 1.2582197189331055, 1.4641637802124023, 1.6701068878173828, 1.8760509490966797, 2.08199405670166, 2.287938117980957, 2.4938812255859375, 2.6998252868652344, 2.9057693481445312, 3.1117124557495117, 3.3176565170288086, 3.523599624633789, 3.729543685913086, 3.9354867935180664, 4.141430854797363, 4.34737491607666, 4.553318023681641, 4.7592620849609375, 4.965205192565918, 5.171149253845215, 5.377093315124512, 5.583036422729492, 5.788980484008789, 5.9949235916137695, 6.200867652893066, 6.406810760498047, 6.612754821777344]}, "gradients/encode_conv3.weight": {"_type": "histogram", "values": [1.0, 0.0, 1.0, 0.0, 0.0, 0.0, 1.0, 0.0, 1.0, 1.0, 0.0, 1.0, 1.0, 1.0, 0.0, 1.0, 4.0, 2.0, 3.0, 2.0, 6.0, 18.0, 9.0, 4.0, 1.0, 6.0, 1.0, 3.0, 2.0, 3.0, 2.0, 2.0, 1.0, 3.0, 0.0, 2.0, 0.0, 1.0, 2.0, 0.0, 1.0, 0.0, 3.0, 0.0, 0.0, 2.0, 1.0, 1.0, 0.0, 0.0, 0.0, 1.0, 0.0, 0.0, 0.0, 0.0, 0.0, 0.0, 0.0, 0.0, 0.0, 0.0, 0.0, 1.0], "bins": [-113.59415435791016, -108.48747253417969, -103.38079071044922, -98.27410888671875, -93.16742706298828, -88.06074523925781, -82.95407104492188, -77.84738159179688, -72.74070739746094, -67.63401794433594, -62.527339935302734, -57.420658111572266, -52.31398010253906, -47.207298278808594, -42.100616455078125, -36.993934631347656, -31.887252807617188, -26.78057098388672, -21.67388916015625, -16.56720733642578, -11.460525512695312, -6.353843688964844, -1.247161865234375, 3.8595199584960938, 8.966194152832031, 14.0728759765625, 19.17955780029297, 24.28624725341797, 29.392921447753906, 34.499610900878906, 39.606285095214844, 44.712974548339844, 49.81964874267578, 54.92632293701172, 60.03301239013672, 65.13968658447266, 70.24637603759766, 75.3530502319336, 80.4597396850586, 85.56641387939453, 90.67310333251953, 95.77977752685547, 100.88646697998047, 105.9931411743164, 111.0998306274414, 116.20650482177734, 121.31319427490234, 126.41986846923828, 131.52655029296875, 136.63323974609375, 141.73989868164062, 146.84658813476562, 151.95327758789062, 157.05996704101562, 162.16665649414062, 167.2733154296875, 172.3800048828125, 177.4866943359375, 182.5933837890625, 187.70004272460938, 192.80673217773438, 197.91342163085938, 203.02011108398438, 208.12677001953125, 213.23345947265625]}, "gradients/fc3.weight": {"_type": "histogram", "values": [1.0, 1.0, 1.0, 1.0, 2.0, 3.0, 5.0, 3.0, 6.0, 6.0, 6.0, 9.0, 8.0, 14.0, 6.0, 7.0, 11.0, 10.0, 4.0, 10.0, 23.0, 71.0, 265.0, 790.0, 18073.0, 516.0, 27.0, 5.0, 0.0, 3.0, 2.0, 0.0, 1.0, 3.0, 1.0, 4.0, 6.0, 6.0, 5.0, 5.0, 3.0, 8.0, 7.0, 5.0, 7.0, 8.0, 5.0, 5.0, 2.0, 6.0, 7.0, 2.0, 4.0, 1.0, 1.0, 2.0, 1.0, 2.0, 3.0, 0.0, 0.0, 0.0, 0.0, 1.0], "bins": [-125.37346649169922, -120.25764465332031, -115.1418228149414, -110.0260009765625, -104.91017150878906, -99.79435729980469, -94.67852783203125, -89.56270599365234, -84.44688415527344, -79.33106231689453, -74.21524047851562, -69.09941101074219, -63.98359298706055, -58.867767333984375, -53.75194549560547, -48.63612365722656, -43.520301818847656, -38.40447998046875, -33.288658142089844, -28.172836303710938, -23.05701446533203, -17.941184997558594, -12.825363159179688, -7.709541320800781, -2.593719482421875, 2.5221023559570312, 7.637931823730469, 12.753746032714844, 17.86957550048828, 22.985389709472656, 28.101219177246094, 33.21703338623047, 38.332862854003906, 43.448692321777344, 48.56450653076172, 53.680335998535156, 58.79615020751953, 63.91197967529297, 69.02779388427734, 74.14362335205078, 79.25943756103516, 84.3752670288086, 89.49109649658203, 94.6069107055664, 99.72274017333984, 104.83855438232422, 109.95438385009766, 115.07019805908203, 120.18602752685547, 125.3018569946289, 130.41766357421875, 135.53347778320312, 140.64932250976562, 145.76513671875, 150.88095092773438, 155.99676513671875, 161.11260986328125, 166.22842407226562, 171.34423828125, 176.4600830078125, 181.57589721679688, 186.69171142578125, 191.80752563476562, 196.92337036132812, 202.0391845703125]}, "gradients/encode_conv4.bias": {"_type": "histogram", "values": [1.0, 0.0, 0.0, 0.0, 0.0, 0.0, 0.0, 0.0, 0.0, 0.0, 0.0, 0.0, 0.0, 0.0, 0.0, 0.0, 0.0, 0.0, 0.0, 0.0, 0.0, 0.0, 0.0, 0.0, 0.0, 0.0, 0.0, 0.0, 0.0, 0.0, 0.0, 0.0, 0.0, 0.0, 0.0, 1.0, 0.0, 0.0, 0.0, 0.0, 0.0, 0.0, 0.0, 0.0, 0.0, 0.0, 1.0, 0.0, 0.0, 0.0, 0.0, 1.0, 0.0, 0.0, 0.0, 0.0, 1.0, 1.0, 0.0, 1.0, 0.0, 0.0, 0.0, 1.0], "bins": [-291.55224609375, -287.1470947265625, -282.741943359375, -278.3367919921875, -273.931640625, -269.5264587402344, -265.1213073730469, -260.7161560058594, -256.3110046386719, -251.90585327148438, -247.50070190429688, -243.09555053710938, -238.69039916992188, -234.2852325439453, -229.8800811767578, -225.47491455078125, -221.06976318359375, -216.66461181640625, -212.25946044921875, -207.85430908203125, -203.44915771484375, -199.04400634765625, -194.6388397216797, -190.2336883544922, -185.8285369873047, -181.42337036132812, -177.01821899414062, -172.61306762695312, -168.20791625976562, -163.80276489257812, -159.39759826660156, -154.99244689941406, -150.58729553222656, -146.18214416503906, -141.77699279785156, -137.371826171875, -132.9666748046875, -128.5615234375, -124.1563720703125, -119.75120544433594, -115.34605407714844, -110.94090270996094, -106.53575134277344, -102.13059997558594, -97.72543334960938, -93.32028198242188, -88.91513061523438, -84.50997924804688, -80.10482788085938, -75.69966125488281, -71.29450988769531, -66.88935852050781, -62.48420715332031, -58.07904052734375, -53.67388916015625, -49.26873779296875, -44.86358642578125, -40.45843505859375, -36.05326843261719, -31.64813232421875, -27.242950439453125, -22.837799072265625, -18.432647705078125, -14.027496337890625, -9.622344970703125]}, "gradients/encode_conv2.bias": {"_type": "histogram", "values": [1.0, 0.0, 0.0, 0.0, 0.0, 0.0, 0.0, 0.0, 0.0, 0.0, 0.0, 0.0, 0.0, 0.0, 0.0, 0.0, 0.0, 0.0, 0.0, 0.0, 0.0, 0.0, 0.0, 0.0, 0.0, 0.0, 0.0, 0.0, 1.0, 0.0, 0.0, 0.0, 0.0, 0.0, 0.0, 0.0, 0.0, 0.0, 0.0, 0.0, 0.0, 0.0, 0.0, 0.0, 0.0, 0.0, 0.0, 0.0, 0.0, 0.0, 0.0, 0.0, 0.0, 0.0, 0.0, 0.0, 0.0, 0.0, 0.0, 1.0, 0.0, 0.0, 0.0, 1.0], "bins": [-36.706642150878906, -36.095577239990234, -35.48451232910156, -34.87344741821289, -34.26238250732422, -33.65131759643555, -33.040252685546875, -32.4291877746582, -31.81812286376953, -31.20705795288086, -30.595993041992188, -29.984928131103516, -29.373863220214844, -28.762798309326172, -28.1517333984375, -27.540668487548828, -26.929603576660156, -26.318538665771484, -25.707473754882812, -25.09640884399414, -24.48534393310547, -23.874279022216797, -23.263214111328125, -22.652149200439453, -22.041086196899414, -21.430021286010742, -20.81895637512207, -20.2078914642334, -19.596826553344727, -18.985761642456055, -18.374696731567383, -17.76363182067871, -17.15256690979004, -16.541501998901367, -15.930437088012695, -15.319372177124023, -14.708307266235352, -14.09724235534668, -13.486177444458008, -12.875112533569336, -12.264047622680664, -11.652982711791992, -11.04191780090332, -10.430852890014648, -9.819787979125977, -9.208723068237305, -8.597658157348633, -7.986593246459961, -7.375530242919922, -6.76446533203125, -6.153400421142578, -5.542335510253906, -4.931270599365234, -4.3202056884765625, -3.7091407775878906, -3.0980758666992188, -2.487010955810547, -1.875946044921875, -1.2648811340332031, -0.6538162231445312, -0.042751312255859375, 0.5683135986328125, 1.1793785095214844, 1.7904434204101562, 2.401508331298828]}, "gradients/encode_conv2.weight": {"_type": "histogram", "values": [1.0, 0.0, 0.0, 1.0, 1.0, 0.0, 2.0, 0.0, 0.0, 2.0, 0.0, 0.0, 1.0, 1.0, 3.0, 6.0, 6.0, 1.0, 1.0, 0.0, 0.0, 1.0, 0.0, 0.0, 0.0, 1.0, 1.0, 1.0, 2.0, 0.0, 2.0, 1.0, 0.0, 1.0, 3.0, 1.0, 0.0, 0.0, 1.0, 0.0, 0.0, 1.0, 1.0, 1.0, 0.0, 0.0, 1.0, 0.0, 0.0, 1.0, 0.0, 0.0, 0.0, 1.0, 0.0, 0.0, 0.0, 0.0, 0.0, 0.0, 0.0, 0.0, 0.0, 1.0], "bins": [-148.46463012695312, -138.10012817382812, -127.73562622070312, -117.37113189697266, -107.00662994384766, -96.64212799072266, -86.27763366699219, -75.91313171386719, -65.54862976074219, -55.18412780761719, -44.81962585449219, -34.45513153076172, -24.09062957763672, -13.72613525390625, -3.36163330078125, 7.00286865234375, 17.36737060546875, 27.73187255859375, 38.09637451171875, 48.46087646484375, 58.82537841796875, 69.18986511230469, 79.55436706542969, 89.91886901855469, 100.28337097167969, 110.64785766601562, 121.01235961914062, 131.37686157226562, 141.74136352539062, 152.10586547851562, 162.47036743164062, 172.83486938476562, 183.19937133789062, 193.56387329101562, 203.92837524414062, 214.29287719726562, 224.65737915039062, 235.02188110351562, 245.38638305664062, 255.75088500976562, 266.1153869628906, 276.4798583984375, 286.8443603515625, 297.2088623046875, 307.5733642578125, 317.9378662109375, 328.3023681640625, 338.6668701171875, 349.0313720703125, 359.3958740234375, 369.7603454589844, 380.1248474121094, 390.4893493652344, 400.8538513183594, 411.2183532714844, 421.5828552246094, 431.9473571777344, 442.3118591308594, 452.6763610839844, 463.0408630371094, 473.4053649902344, 483.7698669433594, 494.1343688964844, 504.4988708496094, 514.8634033203125]}, "gradients/encode_conv1.weight": {"_type": "histogram", "values": [1.0, 0.0, 0.0, 0.0, 0.0, 0.0, 0.0, 0.0, 0.0, 0.0, 0.0, 0.0, 0.0, 0.0, 0.0, 0.0, 1.0, 0.0, 0.0, 0.0, 0.0, 0.0, 0.0, 0.0, 0.0, 0.0, 1.0, 4.0, 1.0, 3.0, 1.0, 6.0, 2.0, 4.0, 5.0, 9.0, 6.0, 5.0, 13.0, 10.0, 3.0, 9.0, 6.0, 6.0, 5.0, 6.0, 5.0, 6.0, 9.0, 4.0, 5.0, 1.0, 3.0, 1.0, 0.0, 0.0, 0.0, 1.0, 0.0, 0.0, 0.0, 1.0, 0.0, 1.0], "bins": [-781.0108642578125, -761.82666015625, -742.6424560546875, -723.458251953125, -704.2740478515625, -685.0899047851562, -665.9057006835938, -646.7214965820312, -627.5372924804688, -608.3530883789062, -589.1688842773438, -569.9847412109375, -550.800537109375, -531.6163330078125, -512.43212890625, -493.2479248046875, -474.063720703125, -454.8795166015625, -435.6953125, -416.5111389160156, -397.3269348144531, -378.1427307128906, -358.95855712890625, -339.77435302734375, -320.59014892578125, -301.40594482421875, -282.22174072265625, -263.03753662109375, -243.8533935546875, -224.669189453125, -205.4849853515625, -186.30078125, -167.1165771484375, -147.932373046875, -128.7481689453125, -109.56396484375, -90.3797607421875, -71.19561767578125, -52.01141357421875, -32.82720947265625, -13.64300537109375, 5.54119873046875, 24.72540283203125, 43.90960693359375, 63.09375, 82.2779541015625, 101.462158203125, 120.6463623046875, 139.83056640625, 159.0147705078125, 178.198974609375, 197.3831787109375, 216.5673828125, 235.75152587890625, 254.935791015625, 274.1199951171875, 293.3040771484375, 312.48828125, 331.6724853515625, 350.856689453125, 370.0408935546875, 389.22509765625, 408.4093017578125, 427.593505859375, 446.7777099609375]}, "gradients/encode_conv3.bias": {"_type": "histogram", "values": [1.0, 0.0, 0.0, 0.0, 0.0, 0.0, 0.0, 0.0, 0.0, 0.0, 0.0, 0.0, 0.0, 0.0, 0.0, 0.0, 1.0, 0.0, 0.0, 0.0, 0.0, 0.0, 0.0, 0.0, 0.0, 0.0, 0.0, 0.0, 0.0, 0.0, 0.0, 0.0, 0.0, 1.0, 0.0, 0.0, 1.0, 0.0, 0.0, 0.0, 1.0, 0.0, 0.0, 0.0, 0.0, 0.0, 1.0, 0.0, 0.0, 0.0, 1.0, 0.0, 0.0, 0.0, 0.0, 0.0, 0.0, 0.0, 0.0, 0.0, 0.0, 0.0, 0.0, 1.0], "bins": [-91.77381134033203, -89.79545593261719, -87.81709289550781, -85.83873748779297, -83.86038208007812, -81.88202667236328, -79.9036636352539, -77.92530822753906, -75.94695281982422, -73.96859741210938, -71.990234375, -70.01187896728516, -68.03352355957031, -66.05516052246094, -64.0768051147461, -62.09844970703125, -60.12009048461914, -58.14173126220703, -56.16337585449219, -54.18501663208008, -52.206661224365234, -50.228302001953125, -48.24994659423828, -46.27158737182617, -44.29322814941406, -42.31487274169922, -40.33651351928711, -38.358158111572266, -36.379798889160156, -34.40144348144531, -32.4230842590332, -30.44472885131836, -28.46636962890625, -26.488014221191406, -24.50965118408203, -22.531295776367188, -20.552940368652344, -18.5745849609375, -16.596221923828125, -14.617866516113281, -12.639511108398438, -10.661148071289062, -8.682792663574219, -6.704437255859375, -4.726081848144531, -2.7477188110351562, -0.7693634033203125, 1.2089920043945312, 3.1873550415039062, 5.16571044921875, 7.144065856933594, 9.122421264648438, 11.100784301757812, 13.079139709472656, 15.0574951171875, 17.035850524902344, 19.01421356201172, 20.992568969726562, 22.970924377441406, 24.94928741455078, 26.927642822265625, 28.90599822998047, 30.884353637695312, 32.86271667480469, 34.84107208251953]}}
